svm_type one_class
kernel_type linear
nr_class 2
total_sv 285
rho 8.30702e+13
SV
1 1:10 2:43 3:232 4:117006 5:27289 6:7855 7:5398 8:4199 9:4976 10:5107 11:606 
1 1:21 2:56 3:-249 4:434598 5:184948 6:28911 7:20247 8:5567 9:21851 10:29475 11:3008 
1 1:16 2:75 3:-20 4:247247 5:132954 6:100077 7:34696 8:4562 9:18544 10:5635 11:1311 
1 1:44 2:77 3:-65 4:578464 5:60328 6:15672 7:39289 8:7087 9:49246 10:9119 11:1436 
1 1:34 2:77 3:-60 4:664195 5:220147 6:86198 7:355406 8:43470 9:62344 10:47726 11:8642 
1 1:20 2:53 3:124 4:693585 5:352108 6:3224 7:10443 8:7050 9:40503 10:26345 11:2824 
1 1:16 2:57 3:278 4:489292 5:152331 6:51635 7:18060 8:23800 9:19410 10:11567 11:1529 
1 1:30 2:70 3:229 4:606539 5:134126 6:63020 7:16324 8:9474 9:32796 10:11694 11:2266 
1 1:34 2:64 3:-106 4:88946 5:26871 6:4200 7:4806 8:2934 9:12773 10:3518 11:384 
1 1:37 2:51 3:261 4:665803 5:91458 6:20457 7:43382 8:32539 9:17560 10:13019 11:3825 
1 1:47 2:41 3:280 4:72701 5:117097 6:5648 7:47085 8:12475 9:19894 10:9975 11:1999 
1 1:47 2:57 3:67 4:794407 5:22369 6:32701 7:9258 8:10202 9:15748 10:19520 11:417 
1 1:37 2:66 3:89 4:130327 5:22931 6:4249 7:11482 8:1745 9:13472 10:1425 11:882 
1 1:43 2:66 3:165 4:168537 5:20478 6:5207 7:2822 8:1934 9:5787 10:5806 11:475 
1 1:37 2:70 3:-196 4:440713 5:53765 6:39672 7:48241 8:30807 9:21907 10:10392 11:10503 
1 1:24 2:81 3:-40 4:725650 5:10587 6:3211 7:25706 8:2566 9:3833 10:4973 11:483 
1 1:38 2:66 3:65 4:596550 5:62427 6:9213 7:21376 8:10366 9:16521 10:14240 11:3455 
1 1:50 2:53 3:-86 4:59416 5:27656 6:1312 7:6225 8:3173 9:12234 10:3632 11:367 
1 1:23 2:54 3:-59 4:236131 5:61689 6:16328 7:9273 8:5353 9:6211 10:6263 11:252 
1 1:20 2:64 3:-8 4:618756 5:33199 6:39981 7:24612 8:5929 9:19469 10:3927 11:2006 
1 1:11 2:54 3:108 4:579784 5:576333 6:17126 7:24002 8:6889 9:19697 10:22197 11:2583 
1 1:4 2:29 3:273 4:58420 5:100899 6:1981 7:1619 8:3123 9:2367 10:4049 11:375 
1 1:7 2:30 3:310 4:160818 5:80646 6:17766 7:20315 8:21114 9:13247 10:13355 11:2078 
1 1:26 2:48 3:-19 4:448089 5:148703 6:23945 7:15522 8:9116 9:35737 10:22128 11:2070 
1 1:35 2:54 3:-488 4:31202 5:2542 6:134 7:1508 8:525 9:2001 10:787 11:146 
1 1:57 2:50 3:116 4:93219 5:9480 6:1215 7:3979 8:4382 9:32716 10:890 11:279 
1 1:61 2:63 3:-200 4:79146 5:23679 6:5880 7:12448 8:1541 9:6165 10:4574 11:329 
1 1:61 2:63 3:-50 4:441381 5:24827 6:10782 7:6104 8:3729 9:3216 10:6359 11:433 
1 1:90 2:48 3:470 4:658612 5:6081 6:3499 7:3454 8:1877 9:24978 10:556 11:555 
1 1:63 2:56 3:-382 4:190403 5:55265 6:17135 7:2468 8:541 9:6370 10:4027 11:421 
1 1:64 2:63 3:-177 4:625880 5:53402 6:4563 7:48490 8:7563 9:59930 10:7004 11:4280 
1 1:63 2:57 3:176 4:68064 5:7634 6:1770 7:2229 8:1651 9:1946 10:825 11:411 
1 1:60 2:56 3:-61 4:486187 5:117116 6:24627 7:57598 8:9842 9:33082 10:9478 11:5152 
1 1:48 2:54 3:33 4:311367 5:125457 6:41610 7:26520 8:5595 9:45983 10:7271 11:1161 
1 1:63 2:44 3:-39 4:11049 5:4524 6:678 7:1423 8:401 9:6537 10:206 11:57 
1 1:60 2:34 3:260 4:105676 5:45075 6:2741 7:6038 8:967 9:19455 10:2322 11:390 
1 1:44 2:50 3:185 4:74322 5:30140 6:2352 7:5591 8:4088 9:6839 10:2295 11:363 
1 1:47 2:63 3:634 4:99820 5:85291 6:23583 7:16639 8:3592 9:31430 10:24992 11:2506 
1 1:47 2:63 3:428 4:575193 5:12748 6:7995 7:3460 8:3631 9:7049 10:6501 11:1214 
1 1:38 2:75 3:16 4:501227 5:10669 6:1863 7:10705 8:2748 9:4555 10:3607 11:533 
1 1:44 2:69 3:-82 4:726771 5:132836 6:7666 7:36487 8:1090 9:68591 10:5906 11:1075 
1 1:47 2:84 3:243 4:425146 5:61151 6:11002 7:18923 8:10942 9:27692 10:21050 11:2505 
1 1:60 2:67 3:58 4:271581 5:117138 6:27086 7:26153 8:2623 9:107502 10:2971 11:2070 
1 1:44 2:60 3:224 4:315999 5:202941 6:49458 7:24627 8:7231 9:30095 10:8581 11:3372 
1 1:27 2:64 3:-76 4:370251 5:116813 6:27956 7:23060 8:8360 9:17655 10:11356 11:1511 
1 1:35 2:56 3:-195 4:634140 5:48050 6:15922 7:18677 8:7773 9:75835 10:9190 11:498 
1 1:40 2:56 3:18 4:379418 5:61951 6:32460 7:20469 8:12056 9:13170 10:6080 11:1852 
1 1:27 2:54 3:276 4:167128 5:29840 6:5238 7:4609 8:1686 9:11179 10:5733 11:429 
1 1:29 2:56 3:-44 4:667111 5:45317 6:41098 7:8305 8:15058 9:13205 10:8649 11:1119 
1 1:34 2:61 3:185 4:276709 5:57243 6:9373 7:3278 8:1149 9:22013 10:781 11:218 
1 1:37 2:48 3:-137 4:533620 5:142788 6:3780 7:28802 8:1012 9:29331 10:12484 11:484 
1 1:56 2:74 3:-115 4:97231 5:24672 6:41182 7:19091 8:5252 9:116847 10:8725 11:3545 
1 1:57 2:84 3:-6 4:771853 5:58375 6:42415 7:13248 8:12385 9:26436 10:30112 11:2742 
1 1:66 2:57 3:32 4:177394 5:8138 6:6797 7:3604 8:1675 9:6411 10:4034 11:391 
1 1:13 2:50 3:263 4:97873 5:80436 6:1359 7:12478 8:2234 9:5833 10:4210 11:423 
1 1:37 2:56 3:146 4:296075 5:192574 6:89750 7:204659 8:12110 9:480776 10:13896 11:10899 
1 1:53 2:75 3:220 4:146220 5:43360 6:12333 7:7449 8:1549 9:4323 10:5411 11:322 
1 1:24 2:63 3:41 4:26534 5:78058 6:6571 7:5961 8:1691 9:4006 10:5230 11:453 
1 1:26 2:61 3:16 4:186998 5:7363 6:5433 7:3873 8:2275 9:3710 10:4049 11:329 
1 1:54 2:4 3:24 4:697873 5:182180 6:3414 7:4989 8:12847 9:16273 10:29746 11:5863 
1 1:41 2:13 3:27 4:268163 5:229641 6:18860 7:8645 8:12582 9:17813 10:10338 11:10891 
1 1:29 2:21 3:203 4:151822 5:327919 6:71194 7:44715 8:21620 9:31893 10:18156 11:14157 
1 1:26 2:56 3:-113 4:265182 5:18612 6:5095 7:4591 8:7523 9:7198 10:13869 11:4373 
1 1:38 2:57 3:56 4:749783 5:197002 6:14758 7:20789 8:10469 9:38785 10:17688 11:14660 
1 1:34 2:57 3:107 4:292408 5:112764 6:22360 7:20264 8:9818 9:7341 10:20340 11:2911 
1 1:48 2:56 3:54 4:688585 5:36311 6:10148 7:5381 8:2205 9:3961 10:8518 11:2755 
1 1:20 2:51 3:-28 4:552203 5:453093 6:48070 7:29474 8:9169 9:18019 10:26610 11:19481 
1 1:13 2:47 3:-102 4:184338 5:322604 6:51600 7:61020 8:16434 9:22768 10:91963 11:15281 
1 1:20 2:51 3:281 4:123781 5:163866 6:57772 7:40555 8:44789 9:20473 10:40457 11:27734 
1 1:83 2:83 3:-75 4:610287 5:171039 6:28505 7:23424 8:8562 9:21394 10:18338 11:6437 
1 1:60 2:44 3:36 4:385639 5:155265 6:19625 7:13812 8:6967 9:25396 10:14259 11:6342 
1 1:81 2:53 3:-19 4:112776 5:14333 6:19797 7:8232 8:4080 9:19201 10:40053 11:4609 
1 1:100 2:56 3:-5 4:392360 5:28725 6:6402 7:6380 8:7796 9:28361 10:12483 11:13747 
1 1:100 2:70 3:-7 4:748881 5:53707 6:35091 7:13514 8:9925 9:23348 10:27646 11:5594 
1 1:69 2:44 3:105 4:312467 5:392443 6:24315 7:2509 8:33316 9:48744 10:34617 11:45001 
1 1:44 2:50 3:-55 4:107580 5:111295 6:6388 7:11294 8:5138 9:11085 10:13806 11:6464 
1 1:27 2:57 3:-9 4:105918 5:25878 6:19855 7:1904 8:4651 9:3660 10:8483 11:4858 
1 1:44 2:51 3:66 4:695344 5:161383 6:53665 7:7294 8:32206 9:22050 10:36598 11:9593 
1 1:24 2:51 3:4 4:451906 5:207351 6:12391 7:31373 8:10342 9:24123 10:36456 11:14498 
1 1:60 2:54 3:168 4:303245 5:172791 6:36266 7:68655 8:3039 9:25843 10:44865 11:14087 
1 1:47 2:56 3:90 4:387835 5:80822 6:3151 7:9035 8:8019 9:4150 10:12041 11:5355 
1 1:29 2:47 3:21 4:232017 5:57157 6:4691 7:4557 8:5579 9:6377 10:6013 11:685 
1 1:53 2:47 3:-41 4:79443 5:37051 6:15892 7:1601 8:12388 9:18788 10:14849 11:6958 
1 1:63 2:54 3:53 4:123754 5:12873 6:2323 7:4504 8:721 9:5264 10:7954 11:3229 
1 1:66 2:56 3:27 4:371238 5:116140 6:28853 7:7111 8:10361 9:20880 10:12394 11:5127 
1 1:47 2:53 3:72 4:226010 5:349827 6:19081 7:48813 8:56600 9:30534 10:66261 11:22601 
1 1:56 2:56 3:84 4:715862 5:43595 6:10328 7:10597 8:8361 9:11015 10:15592 11:6860 
1 1:64 2:75 3:-124 4:502532 5:94317 6:25667 7:5610 8:2744 9:12446 10:13124 11:2994 
1 1:66 2:50 3:82 4:681474 5:296265 6:43341 7:75865 8:88381 9:59912 10:35913 11:35491 
1 1:54 2:37 3:-35 4:370730 5:42962 6:28713 7:21823 8:5367 9:21602 10:14747 11:854 
1 1:30 2:61 3:257 4:640067 5:63773 6:5450 7:42013 8:14693 9:7115 10:8855 11:1935 
1 1:34 2:61 3:-107 4:377651 5:79635 6:39725 7:56146 8:21950 9:29094 10:15408 11:2213 
1 1:51 2:69 3:6 4:304827 5:66600 6:8496 7:53636 8:4498 9:29242 10:8595 11:1702 
1 1:57 2:43 3:227 4:336774 5:125662 6:11052 7:15107 8:8461 9:27028 10:10787 11:1264 
1 1:48 2:40 3:-70 4:661158 5:79631 6:20405 7:23311 8:5688 9:12559 10:20908 11:879 
1 1:51 2:26 3:54 4:548297 5:80805 6:10008 7:10842 8:12911 9:40735 10:6358 11:517 
1 1:27 2:38 3:34 4:582797 5:541591 6:62395 7:74483 8:37458 9:74256 10:69412 11:5081 
1 1:29 2:37 3:107 4:563888 5:94117 6:11784 7:16790 8:5913 9:10504 10:13082 11:975 
1 1:29 2:37 3:-57 4:252713 5:33402 6:4811 7:4285 8:1903 9:2933 10:9455 11:596 
1 1:43 2:37 3:176 4:241996 5:53285 6:9829 7:7617 8:2206 9:22544 10:768 11:424 
1 1:30 2:35 3:-131 4:166900 5:157207 6:32327 7:27993 8:6318 9:8502 10:10395 11:1553 
1 1:30 2:35 3:-65 4:415302 5:57739 6:2071 7:2357 8:808 9:7304 10:4665 11:251 
1 1:30 2:54 3:-41 4:500300 5:39927 6:79492 7:21666 8:9727 9:16262 10:11667 11:1952 
1 1:41 2:56 3:13 4:591516 5:50163 6:4095 7:38287 8:3850 9:53452 10:11904 11:2317 
1 1:48 2:54 3:-147 4:306030 5:124466 6:23469 7:17237 8:10239 9:11558 10:12381 11:1680 
1 1:51 2:56 3:98 4:502231 5:91394 6:19459 7:33581 8:3064 9:45250 10:5556 11:1356 
1 1:20 2:37 3:252 4:58984 5:92353 6:603 7:6942 8:2889 9:5011 10:4516 11:397 
1 1:11 2:26 3:-37 4:205456 5:200397 6:21927 7:14239 8:3163 9:36814 10:5836 11:1450 
1 1:34 2:24 3:13 4:154711 5:20771 6:7138 7:7888 8:4490 9:8501 10:3169 11:534 
1 1:57 2:56 3:-97 4:278146 5:63238 6:32260 7:14247 8:5198 9:18862 10:12497 11:742 
1 1:64 2:40 3:419 4:445298 5:120837 6:7872 7:10369 8:2602 9:62840 10:2663 11:1030 
1 1:69 2:38 3:18 4:676926 5:47362 6:10650 7:6343 8:1918 9:4197 10:2966 11:398 
1 1:57 2:48 3:-77 4:532981 5:36815 6:36771 7:27852 8:3899 9:13832 10:9613 11:1173 
1 1:70 2:40 3:53 4:167754 5:20022 6:619 7:8702 8:2894 9:16848 10:804 11:214 
1 1:56 2:56 3:-65 4:54033 5:2977 6:368 7:715 8:200 9:5283 10:136 11:117 
1 1:66 2:47 3:154 4:512006 5:7267 6:2121 7:3851 8:1355 9:4509 10:3669 11:117 
1 1:47 2:61 3:-374 4:550949 5:53305 6:28368 7:24640 8:16889 9:21104 10:7208 11:2106 
1 1:40 2:43 3:260 4:702089 5:120841 6:5428 7:7264 8:14071 9:26289 10:10241 11:2437 
1 1:38 2:57 3:-18 4:334158 5:20185 6:5089 7:5469 8:3346 9:2794 10:2950 11:482 
1 1:41 2:44 3:-142 4:471954 5:49925 6:18830 7:25278 8:11968 9:11189 10:16537 11:1049 
1 1:41 2:75 3:296 4:122270 5:84491 6:51870 7:36144 8:6303 9:30736 10:7976 11:928 
1 1:41 2:66 3:-101 4:500310 5:190306 6:33109 7:38856 8:3114 9:26692 10:4507 11:811 
1 1:44 2:67 3:17 4:351002 5:8366 6:4487 7:7927 8:1148 9:3468 10:6581 11:547 
1 1:44 2:69 3:-121 4:678950 5:88338 6:10199 7:27113 8:6126 9:10492 10:12909 11:2603 
1 1:29 2:74 3:-53 4:186423 5:102780 6:72163 7:37261 8:4812 9:12817 10:8329 11:1269 
1 1:21 2:77 3:216 4:319775 5:16034 6:11611 7:3080 8:1470 9:2815 10:5261 11:519 
1 1:17 2:63 3:-19 4:119989 5:60132 6:12888 7:2336 8:770 9:2548 10:556 11:422 
1 1:7 2:61 3:55 4:651719 5:114685 6:29890 7:78592 8:15568 9:11026 10:9938 11:1259 
1 1:20 2:48 3:-131 4:638826 5:482630 6:70324 7:45756 8:13482 9:63746 10:7190 11:3287 
1 1:27 2:43 3:50 4:154051 5:20850 6:4557 7:5033 8:1365 9:2716 10:2333 11:251 
1 1:21 2:57 3:-38 4:709860 5:86563 6:78264 7:21631 8:13864 9:10724 10:6365 11:1104 
1 1:21 2:48 3:227 4:680238 5:47770 6:10564 7:19353 8:15663 9:9717 10:3434 11:2169 
1 1:24 2:44 3:-67 4:121687 5:67327 6:4966 7:15983 8:6232 9:10494 10:9098 11:1363 
1 1:26 2:41 3:-227 4:243450 5:60001 6:16395 7:40998 8:14276 9:8073 10:7385 11:581 
1 1:13 2:43 3:198 4:172182 5:233406 6:39778 7:4946 8:7939 9:6409 10:6099 11:1332 
1 1:4 2:50 3:65 4:66502 5:11674 6:1199 7:8575 8:1276 9:1901 10:1776 11:492 
1 1:7 2:48 3:24 4:94806 5:17142 6:6544 7:6962 8:3753 9:2563 10:796 11:1075 
1 1:24 2:56 3:52 4:175980 5:108710 6:9869 7:44922 8:5812 9:12100 10:9132 11:1748 
1 1:27 2:51 3:-37 4:270398 5:64952 6:7611 7:24436 8:13793 9:10014 10:8445 11:3014 
1 1:29 2:54 3:180 4:675599 5:68184 6:63016 7:16202 8:10276 9:13378 10:1893 11:2874 
1 1:38 2:70 3:-278 4:204313 5:16907 6:3770 7:7381 8:3925 9:5526 10:4851 11:1638 
1 1:43 2:66 3:-108 4:221515 5:73519 6:12873 7:13103 8:9937 9:14927 10:8675 11:2288 
1 1:41 2:67 3:240 4:302902 5:26477 6:20648 7:21256 8:8996 9:5925 10:8068 11:2154 
1 1:41 2:63 3:87 4:638362 5:27708 6:41192 7:14217 8:20130 9:9745 10:6008 11:2381 
1 1:4 2:53 3:262 4:206311 5:242710 6:30542 7:25770 8:6532 9:6127 10:10984 11:3022 
1 1:1 2:29 3:-73 4:208166 5:42153 6:3030 7:2006 8:1095 9:3337 10:1908 11:514 
1 1:13 2:40 3:29 4:147653 5:136264 6:79098 7:259518 8:45465 9:35343 10:25984 11:8274 
1 1:26 2:60 3:124 4:464967 5:59146 6:16948 7:13454 8:11261 9:11494 10:2576 11:1862 
1 1:34 2:67 3:300 4:775925 5:68875 6:71295 7:19218 8:10656 9:14060 10:10590 11:3136 
1 1:24 2:75 3:-22 4:362813 5:36969 6:28482 7:28142 8:13854 9:6632 10:6569 11:1921 
1 1:48 2:60 3:9 4:480647 5:25735 6:9810 7:18894 8:6765 9:18520 10:3602 11:2752 
1 1:50 2:51 3:-23 4:221475 5:32340 6:7666 7:6674 8:3893 9:3817 10:1358 11:181 
1 1:41 2:60 3:193 4:561743 5:479682 6:304223 7:47681 8:76610 9:66249 10:31689 11:5598 
1 1:38 2:34 3:55 4:275867 5:78047 6:8990 7:15413 8:12711 9:12851 10:10633 11:1710 
1 1:41 2:27 3:-75 4:31605 5:36386 6:1275 7:8654 8:2399 9:5287 10:810 11:195 
1 1:40 2:21 3:27 4:507814 5:114487 6:15837 7:23584 8:3357 9:11570 10:5589 11:2902 
1 1:47 2:43 3:134 4:73456 5:5255 6:3255 7:2664 8:1262 9:5449 10:1200 11:212 
1 1:53 2:50 3:-211 4:462873 5:92435 6:32980 7:18544 8:7232 9:29413 10:7457 11:2719 
1 1:53 2:41 3:34 4:205102 5:132129 6:16438 7:3905 8:3181 9:10881 10:7948 11:2663 
1 1:34 2:78 3:139 4:69000 5:7251 6:2926 7:1584 8:1388 9:1665 10:1430 11:228 
1 1:37 2:77 3:-57 4:714865 5:86661 6:40925 7:24079 8:9842 9:74598 10:10933 11:1457 
1 1:24 2:64 3:-39 4:106928 5:49819 6:4555 7:9962 8:904 9:4753 10:4615 11:424 
1 1:17 2:44 3:327 4:307879 5:11129 6:12376 7:8207 8:2111 9:8992 10:2848 11:198 
1 1:38 2:43 3:-325 4:536203 5:111295 6:18368 7:35286 8:6150 9:112097 10:2472 11:1926 
1 1:38 2:43 3:48 4:18609 5:2997 6:6074 7:2813 8:1038 9:2379 10:1004 11:171 
1 1:60 2:69 3:326 4:536455 5:26166 6:24168 7:71555 8:12173 9:12984 10:17782 11:2409 
1 1:67 2:63 3:-115 4:528804 5:171350 6:168753 7:93231 8:32531 9:290306 10:43907 11:8073 
1 1:54 2:75 3:-393 4:721952 5:61905 6:7694 7:45733 8:4955 9:16815 10:14865 11:2603 
1 1:48 2:74 3:38 4:84505 5:28888 6:4966 7:11484 8:1586 9:15993 10:5247 11:420 
1 1:48 2:74 3:-205 4:161086 5:3670 6:314 7:1869 8:908 9:1261 10:277 11:97 
1 1:29 2:67 3:-85 4:424750 5:32199 6:3908 7:15207 8:1892 9:9488 10:2661 11:1212 
1 1:26 2:60 3:-107 4:83123 5:9512 6:8772 7:7696 8:1711 9:33506 10:3673 11:427 
1 1:30 2:35 3:-417 4:500121 5:281103 6:1773 7:18890 8:3904 9:40646 10:16705 11:1909 
1 1:61 2:37 3:-165 4:671512 5:96324 6:5539 7:17613 8:12554 9:74244 10:5797 11:1400 
1 1:50 2:16 3:-69 4:743275 5:34243 6:8219 7:36488 8:6895 9:67304 10:7380 11:2194 
1 1:38 2:34 3:58 4:115164 5:7711 6:6909 7:2331 8:5156 9:3438 10:7212 11:307 
1 1:38 2:34 3:61 4:733837 5:38602 6:11502 7:8974 8:4721 9:9432 10:3661 11:1099 
1 1:21 2:56 3:89 4:104898 5:19301 6:7386 7:7129 8:1131 9:4778 10:9562 11:476 
1 1:53 2:40 3:-121 4:536428 5:64159 6:36947 7:7881 8:10859 9:105255 10:5002 11:1583 
1 1:47 2:35 3:266 4:564615 5:195057 6:43195 7:29459 8:21086 9:20740 10:11433 11:1792 
1 1:14 2:47 3:131 4:308507 5:235073 6:98302 7:14073 8:30040 9:24559 10:19368 11:3547 
1 1:30 2:60 3:-46 4:247177 5:42343 6:62299 7:51406 8:8365 9:23733 10:23681 11:2295 
1 1:48 2:69 3:-19 4:115990 5:20306 6:21935 7:48149 8:8304 9:43868 10:29311 11:1389 
1 1:29 2:43 3:171 4:54005 5:60097 6:11949 7:12749 8:1723 9:9529 10:3692 11:526 
1 1:14 2:56 3:-55 4:777481 5:70341 6:5193 7:56054 8:13017 9:15421 10:33228 11:2825 
1 1:8 2:54 3:316 4:285167 5:126992 6:19006 7:73757 8:8339 9:15554 10:14371 11:2947 
1 1:24 2:57 3:153 4:222611 5:71244 6:20754 7:62218 8:8978 9:116367 10:6193 11:1752 
1 1:27 2:48 3:39 4:145557 5:9392 6:8558 7:6327 8:1784 9:3091 10:2205 11:481 
1 1:24 2:69 3:132 4:493981 5:67737 6:32214 7:20699 8:18537 9:15075 10:30404 11:1264 
1 1:21 2:63 3:-49 4:203634 5:71749 6:24087 7:32460 8:19790 9:11331 10:9164 11:1986 
1 1:24 2:67 3:69 4:514246 5:19407 6:13783 7:33986 8:21302 9:13733 10:6250 11:1197 
1 1:21 2:35 3:-163 4:307754 5:323353 6:56637 7:15965 8:3867 9:9017 10:11055 11:2083 
1 1:10 2:24 3:220 4:713949 5:84545 6:3464 7:28181 8:4331 9:11274 10:10802 11:645 
1 1:16 2:41 3:-229 4:506975 5:24361 6:15175 7:15910 8:8831 9:16422 10:14255 11:1407 
1 1:40 2:41 3:-189 4:666354 5:59673 6:12527 7:10704 8:16271 9:23871 10:24896 11:2335 
1 1:40 2:50 3:121 4:257828 5:92267 6:43238 7:12705 8:11962 9:9305 10:24944 11:1193 
1 1:50 2:56 3:137 4:447273 5:17533 6:11908 7:12144 8:8146 9:11104 10:16433 11:1567 
1 1:37 2:53 3:-67 4:181127 5:72138 6:11697 7:30155 8:4725 9:10137 10:8152 11:2044 
1 1:38 2:66 3:-236 4:51235 5:7016 6:8952 7:1018 8:2105 9:5208 10:1350 11:309 
1 1:40 2:61 3:189 4:198178 5:107860 6:21606 7:23638 8:7454 9:11400 10:5150 11:1241 
1 1:21 2:44 3:324 4:114454 5:1032880 6:64481 7:94921 8:40980 9:49004 10:37833 11:13481 
1 1:17 2:40 3:-19 4:618792 5:108649 6:19810 7:15656 8:6081 9:9608 10:6195 11:736 
1 1:8 2:14 3:-117 4:154842 5:104240 6:2200 7:6840 8:6138 9:10291 10:9212 11:2194 
1 1:8 2:8 3:-34 4:248158 5:117931 6:15430 7:9982 8:7618 9:11876 10:3014 11:1244 
1 1:21 2:23 3:17 4:316445 5:12595 6:6496 7:3256 8:814 9:3159 10:3131 11:193 
1 1:29 2:23 3:-23 4:61016 5:20228 6:4674 7:3070 8:3261 9:3866 10:4833 11:418 
1 1:41 2:57 3:120 4:207430 5:17278 6:4294 7:3585 8:1440 9:4890 10:1025 11:549 
1 1:38 2:53 3:-140 4:92174 5:100952 6:33137 7:15887 8:16420 9:14575 10:13326 11:3022 
1 1:30 2:61 3:-12 4:405754 5:74211 6:31167 7:30942 8:6192 9:12122 10:9774 11:3575 
1 1:11 2:54 3:149 4:121925 5:6223 6:4840 7:5616 8:1031 9:3596 10:3204 11:385 
1 1:26 2:37 3:178 4:736975 5:110448 6:9065 7:22105 8:17870 9:8698 10:7234 11:946 
1 1:30 2:60 3:-6 4:321064 5:104051 6:35673 7:24695 8:10525 9:13166 10:5048 11:2186 
1 1:37 2:74 3:16 4:381713 5:65882 6:48367 7:13485 8:14494 9:22608 10:7275 11:1900 
1 1:23 2:74 3:-36 4:410187 5:316657 6:165452 7:138881 8:30763 9:36949 10:40794 11:4386 
1 1:16 2:60 3:-97 4:23894 5:14389 6:1501 7:9153 8:3513 9:2038 10:4947 11:219 
1 1:13 2:51 3:109 4:106837 5:38294 6:3034 7:12545 8:2657 9:2473 10:2554 11:197 
1 1:10 2:41 3:42 4:528757 5:108104 6:13701 7:4819 8:11918 9:19616 10:9625 11:1022 
1 1:14 2:34 3:26 4:495378 5:140471 6:11973 7:19055 8:8904 9:16529 10:6346 11:570 
1 1:16 2:41 3:-171 4:246267 5:148593 6:14583 7:18415 8:24615 9:9437 10:5440 11:1550 
1 1:17 2:37 3:459 4:350076 5:97229 6:8439 7:27652 8:8298 9:8251 10:7631 11:940 
1 1:78 2:14 3:25 4:61463 5:8105 6:13869 7:4322 8:426 9:3278 10:2978 11:1160 
1 1:78 2:14 3:-394 4:115660 5:10303 6:8190 7:4182 8:3780 9:4472 10:3900 11:1187 
1 1:69 2:24 3:541 4:552113 5:59401 6:11697 7:14966 8:4215 9:4644 10:10588 11:1238 
1 1:69 2:24 3:-257 4:414481 5:17335 6:22961 7:16557 8:19389 9:19231 10:3362 11:1328 
1 1:75 2:40 3:136 4:168638 5:9061 6:30897 7:6594 8:7660 9:42440 10:2530 11:633 
1 1:75 2:40 3:102 4:715719 5:12560 6:29233 7:10408 8:1577 9:54048 10:871 11:704 
1 1:75 2:40 3:-222 4:226063 5:3517 6:2782 7:3969 8:2753 9:5322 10:2175 11:392 
1 1:61 2:57 3:-114 4:422652 5:72498 6:23114 7:34113 8:13575 9:77772 10:28938 11:3002 
1 1:60 2:69 3:372 4:152622 5:40297 6:107536 7:4458 8:845 9:23795 10:3950 11:794 
1 1:51 2:70 3:1018 4:15140 5:2367 6:5681 7:4639 8:4529 9:5762 10:1000 11:339 
1 1:51 2:70 3:385 4:525941 5:20108 6:2712 7:50264 8:5602 9:31165 10:2587 11:683 
1 1:51 2:70 3:-91 4:231746 5:35469 6:13956 7:24052 8:1888 9:71861 10:2274 11:1753 
1 1:40 2:77 3:1 4:357390 5:49205 6:89688 7:68235 8:27470 9:80535 10:23237 11:6743 
1 1:40 2:77 3:24 4:425490 5:21079 6:15424 7:15264 8:3859 9:46462 10:2795 11:1326 
1 1:30 2:78 3:48 4:665303 5:189591 6:23868 7:103754 8:24159 9:98848 10:13087 11:8142 
1 1:23 2:74 3:45 4:793330 5:26018 6:26472 7:11096 8:4688 9:19842 10:16396 11:685 
1 1:43 2:51 3:89 4:134409 5:14056 6:2500 7:3732 8:1567 9:36792 10:661 11:598 
1 1:43 2:51 3:-170 4:322632 5:20622 6:14649 7:24332 8:2783 9:75030 10:1328 11:488 
1 1:43 2:51 3:252 4:74712 5:694 6:4515 7:4913 8:1011 9:10653 10:734 11:384 
1 1:81 2:43 3:77 4:45543 5:4109 6:8433 7:3303 8:1035 9:9645 10:530 11:698 
1 1:81 2:43 3:5 4:30279 5:1172 6:781 7:730 8:502 9:8653 10:549 11:70 
1 1:40 2:51 3:-413 4:427941 5:398472 6:51952 7:69585 8:15950 9:34312 10:28907 11:4768 
1 1:40 2:51 3:55 4:670872 5:72871 6:2337 7:11977 8:9580 9:6998 10:4997 11:1353 
1 1:40 2:51 3:247 4:104935 5:36447 6:26646 7:15082 8:5660 9:23195 10:1807 11:779 
1 1:27 2:48 3:29 4:437308 5:245780 6:27214 7:66479 8:25943 9:40040 10:29330 11:2958 
1 1:35 2:43 3:-234 4:48005 5:28901 6:5634 7:17363 8:3076 9:21151 10:2965 11:755 
1 1:35 2:43 3:356 4:321988 5:20845 6:8529 7:13873 8:2524 9:26722 10:1451 11:788 
1 1:35 2:47 3:-52 4:676415 5:111516 6:47053 7:72863 8:29202 9:45682 10:42082 11:2543 
1 1:53 2:41 3:-390 4:584770 5:244437 6:13755 7:63322 8:36565 9:138900 10:7898 11:3504 
1 1:53 2:41 3:374 4:795200 5:19108 6:2630 7:22181 8:8081 9:31175 10:2549 11:2960 
1 1:48 2:47 3:-535 4:636784 5:160274 6:159092 7:68989 8:30202 9:80508 10:32946 11:11685 
1 1:41 2:35 3:108 4:164265 5:32278 6:9274 7:13905 8:1045 9:54685 10:2903 11:1703 
1 1:35 2:48 3:19 4:641514 5:11911 6:8807 7:20740 8:5650 9:9673 10:5533 11:623 
1 1:21 2:57 3:954 4:110072 5:7757 6:3624 7:4269 8:2802 9:2300 10:2820 11:265 
1 1:27 2:50 3:13 4:713581 5:306690 6:14949 7:34902 8:58745 9:42036 10:37470 11:3251 
1 1:41 2:37 3:347 4:489000 5:15209 6:5033 7:12532 8:14513 9:8071 10:9021 11:1776 
1 1:40 2:35 3:48 4:121975 5:32945 6:1947 7:17413 8:4443 9:24219 10:2876 11:771 
1 1:40 2:35 3:-251 4:167968 5:8299 6:1349 7:1791 8:268 9:13443 10:615 11:248 
1 1:66 2:14 3:-28 4:602523 5:203743 6:31034 7:18468 8:14961 9:16010 10:26173 11:12511 
1 1:69 2:1 3:-11 4:485033 5:95356 6:14431 7:6553 8:13714 9:20131 10:17995 11:7501 
1 1:74 2:10 3:-11 4:707699 5:44996 6:17606 7:12641 8:10843 9:21522 10:29273 11:6126 
1 1:100 2:20 3:-35 4:334482 5:71820 6:6390 7:9186 8:6085 9:25096 10:13140 11:6258 
1 1:100 2:13 3:69 4:274980 5:27640 6:3800 7:7222 8:3283 9:8210 10:3647 11:1162 
1 1:88 2:1 3:25 4:276791 5:172779 6:14202 7:6073 8:4742 9:16650 10:15020 11:6341 
1 1:53 2:1 3:97 4:558805 5:125540 6:11416 7:13938 8:18972 9:9562 10:37178 11:12968 
1 1:43 2:35 3:19 4:149898 5:137340 6:56252 7:3591 8:9414 9:7609 10:16169 11:10735 
1 1:41 2:43 3:-151 4:208444 5:103335 6:11194 7:11912 8:8970 9:17727 10:34996 11:7966 
1 1:61 2:43 3:137 4:614814 5:25974 6:11018 7:1813 8:812 9:4983 10:3099 11:1226 
1 1:50 2:16 3:260 4:131252 5:171057 6:1600 7:15306 8:6405 9:10816 10:30691 11:12318 
1 1:37 2:7 3:9 4:714944 5:50881 6:23265 7:10488 8:15905 9:21280 10:16966 11:26794 
1 1:80 2:57 3:-58 4:393599 5:226957 6:15905 7:27331 8:26990 9:85418 10:34796 11:28248 
1 1:74 2:51 3:20 4:362770 5:293366 6:35528 7:116138 8:76888 9:66200 10:68504 11:24475 
1 1:74 2:66 3:-94 4:593819 5:79493 6:57919 7:5152 8:9570 9:19239 10:12382 11:8146 
1 1:51 2:84 3:82 4:681639 5:57362 6:23715 7:6285 8:7619 9:5877 10:31812 11:12961 
1 1:53 2:56 3:-17 4:192243 5:77396 6:10362 7:3513 8:3427 9:3264 10:6972 11:1569 
1 1:30 2:69 3:23 4:601026 5:127236 6:60559 7:21594 8:11254 9:19223 10:16356 11:5795 
1 1:26 2:67 3:163 4:250700 5:49068 6:9383 7:7625 8:3406 9:11758 10:14610 11:2565 
1 1:41 2:57 3:12 4:119216 5:380057 6:114898 7:87788 8:44436 9:62568 10:71013 11:44825 
1 1:37 2:37 3:60 4:323128 5:129528 6:34862 7:38506 8:18382 9:29940 10:27340 11:9252 
1 1:43 2:48 3:186 4:230570 5:126632 6:129901 7:37035 8:21295 9:23968 10:46697 11:6920 
1 1:67 2:67 3:-34 4:220549 5:5812 6:1565 7:2167 8:1725 9:5620 10:9010 11:1037 
1 1:47 2:14 3:34 4:109972 5:72258 6:6066 7:2823 8:3488 9:3128 10:5354 11:2777 
1 1:38 2:24 3:38 4:211673 5:1108783 6:322925 7:56458 8:22435 9:70798 10:64494 11:17586 
1 1:26 2:30 3:148 4:185949 5:85965 6:26895 7:29176 8:26789 9:33430 10:78967 11:15369 
1 1:29 2:51 3:-57 4:546129 5:213609 6:22223 7:32258 8:13349 9:37319 10:40141 11:23548 
