svm_type one_class
kernel_type sigmoid
gamma 0.0909091
coef0 0
nr_class 2
total_sv 133
rho 133
SV
1 1:56 2:43 3:278 4:301963 5:90612 6:33735 7:23991 8:27946 9:45097 10:33228 11:8293 
1 1:40 2:35 3:-50 4:73787 5:28083 6:1439 7:2240 8:2746 9:3687 10:5293 11:2740 
1 1:47 2:48 3:101 4:758353 5:383745 6:201999 7:62107 8:36293 9:130536 10:57243 11:25354 
1 1:47 2:57 3:-5 4:2012240 5:129350 6:61236 7:17084 8:11488 9:62462 10:49960 11:33932 
1 1:44 2:53 3:-8 4:1005145 5:354328 6:37102 7:88881 8:45307 9:99603 10:44790 11:29749 
1 1:44 2:66 3:73 4:1786446 5:176766 6:59352 7:26157 8:15054 9:33669 10:33782 11:31750 
1 1:43 2:69 3:130 4:635191 5:122446 6:90107 7:65072 8:36230 9:53019 10:62938 11:59307 
1 1:40 2:61 3:-2 4:161098 5:12119 6:1963 7:809 8:1277 9:3186 10:3266 11:2518 
1 1:43 2:69 3:17 4:492796 5:120998 6:63697 7:68242 8:10769 9:88403 10:73756 11:22676 
1 1:47 2:69 3:-59 4:82048 5:116131 6:47317 7:26197 8:41642 9:28866 10:32551 11:41810 
1 1:48 2:38 3:-14 4:757165 5:186196 6:3242 7:3841 8:18854 9:43021 10:46799 11:11928 
1 1:44 2:48 3:72 4:667513 5:141854 6:75050 7:16234 8:45926 9:34496 10:74875 11:31839 
1 1:47 2:34 3:121 4:165360 5:42119 6:3158 7:6256 8:7270 9:19462 10:10984 11:8148 
1 1:48 2:30 3:-52 4:737665 5:84275 6:2235 7:38748 8:21705 9:28343 10:80927 11:24735 
1 1:47 2:48 3:69 4:577024 5:179555 6:25937 7:21604 8:43790 9:44432 10:69203 11:25586 
1 1:57 2:43 3:44 4:234964 5:80944 6:7991 7:32568 8:11828 9:63682 10:41013 11:18147 
1 1:57 2:40 3:144 4:671467 5:133227 6:7142 7:14300 8:23373 9:65591 10:47860 11:16501 
1 1:70 2:40 3:25 4:33290 5:14729 6:10980 7:10407 8:14316 9:37112 10:60378 11:36306 
1 1:74 2:44 3:-138 4:1025416 5:268122 6:67285 7:36996 8:10083 9:80826 10:90350 11:26345 
1 1:67 2:53 3:25 4:756442 5:97387 6:59785 7:32241 8:16122 9:53157 10:44602 11:14331 
1 1:70 2:66 3:124 4:87109 5:7200 6:4987 7:2817 8:2130 9:11413 10:9422 11:4922 
1 1:57 2:53 3:43 4:802937 5:83858 6:3229 7:7895 8:27104 9:17791 10:18901 11:12191 
1 1:53 2:51 3:35 4:157687 5:283941 6:27259 7:47930 8:15132 9:38238 10:31599 11:10121 
1 1:41 2:50 3:119 4:613031 5:758257 6:246386 7:132015 8:26636 9:83848 10:94542 11:56127 
1 1:27 2:37 3:37 4:603204 5:47342 6:3215 7:2811 8:1863 9:7210 10:7875 11:1523 
1 1:29 2:50 3:102 4:234796 5:182944 6:53997 7:31259 8:19633 9:67149 10:29367 11:21433 
1 1:30 2:35 3:24 4:188099 5:144504 6:3546 7:5541 8:16381 9:22364 10:14698 11:7338 
1 1:37 2:21 3:-51 4:632782 5:162376 6:12692 7:3991 8:5848 9:23018 10:22561 11:9851 
1 1:30 2:41 3:61 4:477853 5:264240 6:217609 7:76443 8:22228 9:38904 10:66985 11:42550 
1 1:26 2:43 3:290 4:731447 5:69065 6:23286 7:9017 8:4767 9:12942 10:18230 11:2111 
1 1:20 2:56 3:-21 4:1099119 5:673426 6:74729 7:93214 8:67019 9:50197 10:88444 11:30954 
1 1:20 2:67 3:4 4:1969931 5:185293 6:41196 7:21801 8:7827 9:35523 10:22243 11:23871 
1 1:35 2:48 3:-156 4:1363838 5:316172 6:61645 7:18496 8:186966 9:171258 10:60131 11:18933 
1 1:48 2:48 3:-22 4:637681 5:30439 6:21521 7:10035 8:12856 9:52824 10:20595 11:17686 
1 1:63 2:51 3:3 4:423411 5:128048 6:70321 7:5490 8:22889 9:70927 10:22724 11:7383 
1 1:61 2:53 3:0 4:585120 5:237694 6:71643 7:47282 8:58807 9:37566 10:50029 11:27424 
1 1:54 2:67 3:186 4:1103969 5:83627 6:68911 7:12218 8:44447 9:32024 10:86928 11:33393 
1 1:51 2:50 3:40 4:480086 5:206751 6:11652 7:5005 8:7894 9:121856 10:47858 11:6963 
1 1:57 2:50 3:88 4:48448 5:6377 6:2890 7:4667 8:4016 9:10351 10:9810 11:2278 
1 1:69 2:56 3:26 4:9313 5:15189 6:17884 7:17607 8:11743 9:24911 10:12283 11:22119 
1 1:80 2:54 3:-7 4:252800 5:41805 6:23580 7:18972 8:15411 9:52067 10:28635 11:10415 
1 1:67 2:51 3:91 4:195366 5:65596 6:512 7:2607 8:6602 9:9152 10:12054 11:6335 
1 1:69 2:47 3:80 4:18403 5:26289 6:2162 7:15904 8:24282 9:45184 10:16441 11:13761 
1 1:77 2:34 3:39 4:11723 5:35281 6:6055 7:12533 8:24186 9:54639 10:21382 11:9906 
1 1:66 2:43 3:10 4:233282 5:30666 6:43745 7:31955 8:14309 9:19785 10:25864 11:9471 
1 1:70 2:63 3:103 4:150690 5:14877 6:3795 7:3328 8:2292 9:4455 10:7051 11:1672 
1 1:74 2:69 3:74 4:18823 5:6577 6:10996 7:5618 8:7642 9:30823 10:13718 11:9248 
1 1:69 2:80 3:24 4:341908 5:33036 6:30789 7:16110 8:5032 9:51848 10:30502 11:13219 
1 1:90 2:63 3:53 4:8588 5:4716 6:3320 7:8459 8:15884 9:38632 10:7068 11:7283 
1 1:90 2:60 3:87 4:256616 5:94368 6:9804 7:20195 8:21725 9:26785 10:32747 11:10344 
1 1:77 2:61 3:89 4:22853 5:28961 6:15257 7:12957 8:9137 9:15402 10:45940 11:4478 
1 1:81 2:57 3:-40 4:8661 5:9095 6:13028 7:14136 8:19006 9:37738 10:27378 11:12102 
1 1:70 2:57 3:11 4:91553 5:23931 6:4921 7:3249 8:2296 9:21990 10:7514 11:2779 
1 1:77 2:60 3:-20 4:580030 5:148325 6:74965 7:13663 8:35966 9:100939 10:27601 11:11601 
1 1:84 2:51 3:-33 4:130837 5:14436 6:2265 7:4228 8:2396 9:17168 10:6475 11:4698 
1 1:75 2:43 3:10 4:336749 5:98427 6:5398 7:18977 8:14124 9:33811 10:57032 11:14227 
1 1:77 2:48 3:108 4:49279 5:28636 6:10777 7:18745 8:11151 9:53241 10:75219 11:6417 
1 1:84 2:43 3:45 4:95437 5:10987 6:2892 7:1337 8:1401 9:16244 10:12615 11:3145 
1 1:94 2:43 3:25 4:123433 5:5574 6:1187 7:12653 8:7270 9:58306 10:20809 11:12424 
1 1:100 2:44 3:74 4:71080 5:19794 6:7458 7:2177 8:19058 9:16638 10:16289 11:14815 
1 1:100 2:41 3:37 4:74424 5:17236 6:15576 7:4886 8:22499 9:42571 10:70116 11:15802 
1 1:100 2:47 3:-156 4:58860 5:37401 6:16918 7:21404 8:26403 9:59084 10:34219 11:16582 
1 1:75 2:53 3:-12 4:90015 5:79586 6:8334 7:43916 8:21724 9:21729 10:20178 11:12945 
1 1:88 2:56 3:68 4:8750 5:7072 6:6765 7:18077 8:6611 9:90733 10:35734 11:33128 
1 1:81 2:60 3:44 4:201217 5:6587 6:1702 7:2628 8:1257 9:6095 10:2097 11:4106 
1 1:88 2:51 3:92 4:4210 5:17350 6:3735 7:5612 8:8083 9:47956 10:15865 11:46190 
1 1:100 2:57 3:42 4:28452 5:1945 6:20942 7:22248 8:10248 9:44225 10:33784 11:16394 
1 1:87 2:56 3:109 4:234771 5:36139 6:6234 7:6563 8:13457 9:15790 10:56181 11:10461 
1 1:90 2:56 3:43 4:15374 5:12260 6:6754 7:15641 8:22124 9:30405 10:6331 11:10828 
1 1:80 2:67 3:138 4:2290 5:10386 6:11038 7:6222 8:13794 9:15173 10:9627 11:6077 
1 1:83 2:60 3:37 4:180405 5:10058 6:6596 7:8617 8:8674 9:28922 10:20891 11:10480 
1 1:77 2:63 3:20 4:91061 5:25916 6:8048 7:2298 8:3602 9:6460 10:4609 11:4987 
1 1:80 2:53 3:5 4:2444 5:31376 6:5928 7:4537 8:18689 9:53420 10:9841 11:9840 
1 1:75 2:51 3:33 4:226325 5:38577 6:8621 7:25102 8:27438 9:16737 10:25635 11:11386 
1 1:64 2:44 3:-89 4:118368 5:81821 6:12732 7:7451 8:11768 9:33964 10:13513 11:23044 
1 1:75 2:38 3:144 4:68646 5:72933 6:5920 7:14240 8:11564 9:54291 10:37361 11:13864 
1 1:66 2:47 3:43 4:78277 5:51955 6:6472 7:16330 8:6305 9:35029 10:34467 11:15218 
1 1:69 2:38 3:-197 4:242073 5:136113 6:13608 7:31306 8:21984 9:67949 10:23511 11:18555 
1 1:77 2:48 3:18 4:191409 5:35892 6:13636 7:30246 8:6434 9:61067 10:27190 11:9597 
1 1:81 2:50 3:58 4:5247 5:19363 6:4172 7:6989 8:4894 9:39731 10:48295 11:22841 
1 1:87 2:44 3:-100 4:116823 5:56636 6:7451 7:15046 8:21773 9:62067 10:48305 11:17925 
1 1:77 2:44 3:-57 4:394683 5:87005 6:1813 7:14702 8:3258 9:10747 10:23429 11:7630 
1 1:69 2:40 3:20 4:103090 5:121688 6:29001 7:20341 8:15391 9:51655 10:17536 11:24347 
1 1:56 2:43 3:85 4:324348 5:139729 6:20064 7:26408 8:10331 9:47122 10:64328 11:7892 
1 1:57 2:51 3:259 4:19068 5:13035 6:7706 7:16304 8:12924 9:41988 10:47299 11:12807 
1 1:60 2:43 3:11 4:306695 5:63394 6:2697 7:3011 8:6966 9:8479 10:10947 11:3731 
1 1:57 2:38 3:-17 4:797316 5:27368 6:5775 7:2484 8:19576 9:9637 10:12103 11:3229 
1 1:60 2:40 3:86 4:41953 5:55404 6:14562 7:10602 8:6794 9:22837 10:19045 11:23343 
1 1:54 2:40 3:341 4:35567 5:29703 6:8135 7:12382 8:15414 9:27324 10:13682 11:14977 
1 1:60 2:43 3:-8 4:147162 5:17452 6:1902 7:774 8:1710 9:4701 10:1915 11:1787 
1 1:63 2:48 3:114 4:238338 5:84260 6:25800 7:22647 8:23783 9:59936 10:19720 11:29906 
1 1:69 2:48 3:58 4:5290 5:17561 6:8723 7:6946 8:4450 9:27686 10:29290 11:10289 
1 1:75 2:44 3:3 4:10372 5:19895 6:2260 7:10275 8:18461 9:27622 10:37094 11:13300 
1 1:88 2:48 3:51 4:8669 5:9611 6:3755 7:2976 8:9852 9:24591 10:15186 11:6985 
1 1:84 2:53 3:54 4:158064 5:49690 6:26428 7:6891 8:4899 9:24021 10:13308 11:8286 
1 1:87 2:57 3:49 4:5655 5:3495 6:8717 7:13995 8:12292 9:23727 10:18075 11:12990 
1 1:70 2:53 3:42 4:453092 5:42420 6:4002 7:1224 8:2331 9:5716 10:8466 11:1175 
1 1:67 2:57 3:12 4:7071 5:13836 6:6204 7:8102 8:5014 9:30012 10:67918 11:16944 
1 1:66 2:60 3:101 4:189432 5:93096 6:56068 7:13748 8:18651 9:31468 10:39327 11:14499 
1 1:60 2:61 3:-33 4:12813 5:19064 6:20174 7:12237 8:10252 9:19668 10:31685 11:32072 
1 1:70 2:80 3:108 4:356574 5:28199 6:55720 7:32961 8:8058 9:63705 10:50383 11:41135 
1 1:54 2:74 3:-39 4:498323 5:111289 6:6538 7:12000 8:6092 9:16017 10:21058 11:5202 
1 1:63 2:53 3:40 4:343853 5:103026 6:6198 7:4588 8:21356 9:69280 10:54032 11:14112 
1 1:57 2:50 3:53 4:349601 5:104400 6:25953 7:43163 8:25130 9:31417 10:84169 11:14154 
1 1:51 2:40 3:72 4:354627 5:30185 6:12524 7:3197 8:9053 9:13299 10:21645 11:3046 
1 1:67 2:43 3:-45 4:564242 5:140222 6:31154 7:32135 8:30095 9:167909 10:53741 11:18512 
1 1:51 2:64 3:327 4:655645 5:90881 6:51657 7:12105 8:10240 9:12386 10:17857 11:12219 
1 1:48 2:64 3:40 4:162741 5:14524 6:8462 7:1697 8:3479 9:3596 10:2617 11:3273 
1 1:54 2:67 3:-25 4:127555 5:44482 6:21549 7:36369 8:35485 9:60862 10:45573 11:47922 
1 1:40 2:66 3:153 4:621932 5:119673 6:18490 7:9414 8:16178 9:18829 10:17780 11:9739 
1 1:38 2:64 3:200 4:2521371 5:433788 6:228893 7:44669 8:108535 9:44725 10:117066 11:34900 
1 1:38 2:75 3:121 4:482325 5:6062 6:5419 7:8736 8:1904 9:3279 10:7686 11:1367 
1 1:21 2:70 3:140 4:2197150 5:310845 6:78556 7:32552 8:23904 9:29143 10:122673 11:32799 
1 1:20 2:81 3:275 4:144623 5:76003 6:31174 7:20232 8:14408 9:13970 10:15196 11:14990 
1 1:21 2:70 3:88 4:748194 5:119448 6:15397 7:9809 8:5250 9:10989 10:25103 11:16081 
1 1:24 2:67 3:38 4:1139671 5:115395 6:147609 7:28080 8:15904 9:65985 10:72893 11:13977 
1 1:26 2:75 3:113 4:2723077 5:269807 6:36989 7:182983 8:75587 9:38358 10:50226 11:26529 
1 1:26 2:78 3:65 4:811696 5:155624 6:121384 7:49527 8:22563 9:34212 10:48464 11:16027 
1 1:29 2:87 3:108 4:1052039 5:144155 6:48221 7:19583 8:19691 9:21952 10:61247 11:12496 
1 1:24 2:66 3:-66 4:2251456 5:578610 6:37462 7:35203 8:35198 9:85490 10:219885 11:58174 
1 1:34 2:69 3:-186 4:2514836 5:89905 6:42659 7:132116 8:55290 9:62948 10:68355 11:26482 
1 1:30 2:78 3:85 4:1827581 5:169756 6:556251 7:138551 8:51900 9:81716 10:105580 11:67511 
1 1:29 2:83 3:25 4:2030223 5:293889 6:124693 7:88720 8:48841 9:45727 10:91273 11:12308 
1 1:24 2:91 3:108 4:946374 5:134512 6:32208 7:10813 8:4270 9:14117 10:42212 11:7154 
1 1:13 2:78 3:102 4:735302 5:135645 6:14433 7:14690 8:8000 9:10193 10:23067 11:8241 
1 1:13 2:57 3:22 4:2004390 5:1031826 6:125083 7:234589 8:77074 9:114806 10:222111 11:84108 
1 1:13 2:54 3:-91 4:500702 5:134751 6:4368 7:75803 8:35046 9:18167 10:36778 11:19022 
1 1:17 2:60 3:73 4:93861 5:54928 6:24251 7:6985 8:3551 9:13126 10:9308 11:2973 
1 1:26 2:70 3:36 4:1960707 5:312717 6:197014 7:54408 8:32096 9:93044 10:165044 11:34694 
1 1:21 2:77 3:169 4:2708043 5:507360 6:109523 7:190233 8:50581 9:42260 10:117666 11:30864 
1 1:23 2:70 3:-11 4:1000754 5:140243 6:28477 7:5054 8:4164 9:15184 10:36877 11:6094 
1 1:21 2:57 3:69 4:1055442 5:546016 6:58607 7:10126 8:11200 9:77770 10:111190 11:16986 
1 1:23 2:54 3:87 4:1850490 5:256988 6:80487 7:73274 8:65090 9:81129 10:37915 11:19027 
